digraph Tree {
node [shape=box, style="filled", color="black"] ;
0 [label="petal length (cm) <= 2.45\nentropy = 0.913\nsamples = 140\nvalue = [94, 46]\nclass = setosa", fillcolor="#f2bf9a"] ;
1 [label="entropy = 0.0\nsamples = 46\nvalue = [0, 46]\nclass = versicolor", fillcolor="#399de5"] ;
0 -> 1 [labeldistance=2.5, labelangle=45, headlabel="True"] ;
2 [label="entropy = 0.0\nsamples = 94\nvalue = [94, 0]\nclass = setosa", fillcolor="#e58139"] ;
0 -> 2 [labeldistance=2.5, labelangle=-45, headlabel="False"] ;
}
